0.032357
0.062093
-0.055697
0.011470
0.012375
0.039293
0.044568
0.001478
0.020632
0.023542
0.044754
0.011164
0.038901
0.006922
0.018731
-0.018336
-0.008296
-0.024104
-0.001755
0.022619
0.049010
-0.004469
0.032775
0.000603
0.005233
0.024174
0.013264
0.023014
0.020023
0.019278
0.029597
0.019125
-0.013337
-0.008009
0.004180
0.047450
0.012926
-0.016859
0.007438
-0.013261
0.004240
0.020995
0.024032
0.044484
-0.019230
0.012350
-0.030250
0.039763
0.001729
-0.015770
-0.054757
-0.010978
0.057496
-0.020124
-0.020956
-0.034655
0.004083
-0.002718
0.001903
-0.013897
0.018563
-0.004263
0.025726
0.008296
0.000525
0.029481
0.006062
-0.014459
-0.009823
-0.037166
0.041065
-0.031756
-0.003363
0.030378
-0.009083
0.000433
-0.013152
0.014693
-0.000450
0.003362
0.027907
0.004920
-0.004972
0.001388
-0.007326
0.013742
0.018325
0.018118
-0.003301
-0.008472
-0.002777
0.005156
-0.009369
0.007066
-0.020758
-0.026298
-0.002373
-0.015607
0.023453
0.013077
0.003400
0.003682
0.018847
0.012500
0.014113
0.001235
-0.009645
0.017022
0.050310
0.023138
0.024386
0.041135
-0.001309
0.038325
-0.035854
0.015142
0.036282
0.016760
-0.002296
-0.038180
-0.020092
-0.011109
0.006947
0.037577
0.029154
0.043524
0.009843
0.007805
0.021171
-0.003985
-0.017681
-0.009158
0.002712
-0.006229
0.014113
-0.009537
0.003467
0.014143
-0.028490
0.079823
0.013791
-0.008045
0.008647
-0.013631
0.015697
0.007959
-0.006356
-0.003556
0.026715
-0.013404
0.017753
0.032196
-0.002409
0.025981
0.060286
-0.005440
0.015573
-0.028930
-0.018636
-0.024649
-0.000100
-0.019236
-0.016888
0.022530
0.009071
0.018022
-0.002386
0.016272
-0.044851
0.013474
-0.001924
0.043976
0.010240
-0.043817
0.007543
-0.000507
0.023186
-0.028932
0.015503
-0.024840
-0.014507
0.021034
-0.027887
-0.013591
0.043592
0.008577
0.008115
0.040950
0.035121
0.031772
0.027404
0.021836
0.024329
0.003936
0.039277
-0.032610
0.013362
-0.016433
-0.006775
0.018824
-0.009052
-0.008625
-0.019113
0.005672
-0.013551
-0.011986
-0.014631
-0.005789
0.012110
-0.029880
0.018033
0.030842
0.016850
0.041630
-0.030266
0.034650
0.022507
-0.003816
0.018254
0.029450
0.024409
-0.002171
0.001616
0.012384
0.034598
0.006262
0.011503
0.035178
-0.027495
-0.011824
0.033039
0.021759
-0.003908
-0.015129
0.001376
0.008663
0.010680
-0.011391
0.029543
-0.016517
-0.020118
0.017309
0.001706
0.028935
0.000793
0.017165
0.002409
-0.017876
0.060397
-0.035518
-0.001271
0.010436
0.007502
0.026956
0.010357
-0.005996
0.011836
0.017306
0.026265
0.005816
0.017640
0.010505
0.006378
0.008785
0.022706
0.033080
0.022207
0.031642
0.063929
0.011744
0.017661
0.020702
0.023174
0.000861
-0.014629
0.013038
0.012129
0.024074
-0.000507
0.010742
0.031505
0.052251
0.027368
0.094081
0.003071
-0.048231
-0.000157
0.032116
0.027654
-0.031656
0.011469
0.025187
-0.022777
0.041384
0.019062
0.014526
0.028674
0.048348
0.012955
-0.024980
0.021915
0.020794
0.003444
0.013501
-0.016720
-0.006090
0.014316
-0.014655
0.033871
0.000337
0.007157
0.042594
0.022792
-0.003680
0.057386
0.032469
0.046953
-0.009550
-0.009282
0.005344
-0.048174
-0.026858
0.012413
0.014632
0.022788
0.009697
0.006480
-0.013643
0.033495
0.022584
0.020096
0.013683
-0.032888
-0.014808
-0.010241
0.006001
0.027411
-0.025240
0.013272
0.034996
0.010427
0.027039
-0.051049
0.015699
0.033577
0.032324
-0.003728
-0.032088
-0.006093
0.055799
0.030354
-0.025706
0.046743
-0.030630
-0.018929
-0.008698
-0.024198
-0.043815
0.044266
0.030964
0.009341
0.055079
-0.034023
-0.021223
-0.005924
0.019438
-0.041229
0.020017
-0.009700
0.012523
0.017571
0.005401
0.037646
0.011514
-0.015521
0.056022
-0.017771
-0.021001
-0.011158
0.004100
0.020505
-0.004938
0.009019
0.016571
0.024024
-0.001133
0.013738
0.012394
0.034533
0.011234
0.005520
-0.009633
-0.007160
0.030790
-0.022934
0.019965
0.019479
0.012471
0.022318
0.026047
-0.031142
-0.027876
0.004275
-0.009182
0.018704
0.006106
-0.021039
0.024050
0.013023
-0.034115
-0.007143
-0.021087
-0.012917
0.020430
0.018126
0.010591
-0.008489
-0.020733
0.018230
0.022176
-0.001468
-0.015287
-0.006868
0.003346
0.029234
0.008857
0.031817
0.001846
0.006274
0.027672
-0.004433
-0.028704
-0.024550
-0.000487
-0.000521
-0.023035
-0.011290
-0.008261
0.052572
0.025537
0.043536
0.004851
0.023051
-0.018642
0.031611
0.000492
-0.007419
-0.001023
0.003902
0.013410
-0.005020
0.030406
-0.001214
0.041311
0.024691
0.007469
-0.004297
-0.001098
-0.000076
0.046880
0.016619
0.012448
0.015809
0.007389
0.012560
0.012058
0.012973
-0.012631
-0.050575
0.024174
-0.010819
-0.014229
0.027929
0.009770
-0.021745
0.024666
0.012747
-0.009762
-0.004019
0.052009
-0.021105
0.019991
-0.025989
0.004345
-0.003229
-0.007283
0.001934
0.025513
0.012673
0.031924
0.016291
0.047591
-0.001538
-0.016537
0.020114
0.005619
0.007619
0.012299
0.014231
-0.021150
-0.008532
0.006587
0.005676
0.012132
-0.006862
-0.046574
0.009860
-0.025477
-0.000535
0.016895
0.037860
0.008868
0.006876
0.006457
-0.010736
0.041802
0.018568
0.033113
0.000926
-0.005307
0.054924
-0.028156
0.008268
-0.009336
0.009124
0.006355
-0.018524
-0.002020
0.024393
-0.031868
0.022394
0.029216
0.047417
-0.027165
0.042459
0.015749
-0.006945
-0.033179
-0.010070
-0.004458
-0.032313
-0.013076
-0.005965
-0.005971
-0.004140
0.004069
0.039174
0.021284
0.037318
0.005877
0.016902
0.009118
0.027444
0.024450
-0.020880
0.027525
-0.004922
0.016588
0.010311
-0.006275
0.052155
-0.033004
0.053965
0.030442
0.025384
-0.034260
0.028736
-0.024559
0.035113
-0.008203
-0.006195
0.007610
-0.003976
0.027333
-0.008297
-0.003058
0.024040
-0.028818
-0.026252
-0.001981
-0.005106
-0.003876
0.000118
-0.000398
0.002685
0.001203
0.010864
0.028013
0.003427
0.008997
0.056414
-0.016086
-0.004137
0.021951
0.046013
0.037314
-0.008310
0.034861
-0.002895
0.024846
-0.017207
-0.023089
0.029285
-0.001959
-0.005031
-0.000293
0.006597
0.034594
0.039958
-0.017466
-0.013308
-0.008773
0.036302
-0.012090
-0.011934
0.015577
-0.014330
0.011483
0.005242
0.000193
0.001404
0.008011
-0.000651
0.015339
-0.048531
-0.008942
-0.014044
0.014602
0.036796
0.020634
-0.003309
0.036639
0.020347
-0.000697
0.012535
0.029008
0.019689
0.017928
0.009373
0.025545
0.037388
-0.028390
0.024174
-0.029158
-0.001427
0.028032
-0.031362
-0.056413
0.005324
0.016631
-0.024548
-0.002580
-0.018672
0.047318
0.004409
0.020840
0.010205
0.001597
-0.046670
0.040903
0.036100
-0.034329
0.027584
0.020973
-0.016144
0.032965
0.043466
0.012795
0.004315
0.005471
0.018582
-0.029211
0.014528
-0.002819
-0.000390
-0.022340
0.000209
0.004706
0.024249
-0.025028
0.029960
-0.010248
0.044465
-0.026962
0.008849
-0.006473
0.007104
-0.013467
0.019948
-0.014704
0.002676
0.004954
0.009168
0.009414
-0.017584
0.012897
0.024845
0.020733
0.033261
0.020194
0.014846
0.006496
-0.019082
0.031825
-0.040785
-0.032591
0.019101
0.020271
0.031540
-0.018806
0.009169
-0.042994
0.043972
0.021357
-0.006031
0.004199
0.041811
0.027023
0.005735
0.023979
0.039143
0.031087
0.009173
0.013683
-0.011181
0.005233
0.011195
0.026685
0.055602
0.009934
-0.018117
0.029716
-0.014037
0.025971
-0.012077
0.001622
0.005868
-0.003330
0.002745
0.002508
-0.000180
0.029183
0.019366
0.000586
-0.032699
-0.002141
0.007499
0.002121
0.009883
0.057373
0.039380
-0.011418
-0.029964
0.026721
0.007962
0.065078
0.032985
-0.006531
0.045446
0.011744
0.008699
-0.012865
0.007053
-0.005610
-0.005502
0.002589
-0.019189
0.010967
0.002991
-0.009289
-0.002477
0.026658
0.014509
-0.005328
-0.008823
-0.008404
0.008553
0.002525
0.018454
0.016008
0.004321
-0.024931
-0.017662
0.013837
0.002472
-0.028421
-0.002338
0.004225
-0.008483
0.034165
-0.030911
-0.018295
-0.030347
0.017038
0.017901
-0.032395
0.041682
0.038555
0.015194
0.012547
0.002811
0.014415
0.015721
-0.017801
0.017390
0.020273
0.020543
0.008793
0.023318
0.018167
0.008236
0.033619
-0.009530
-0.025185
0.012364
-0.000626
-0.010615
0.034366
0.000634
0.011715
0.026427
0.021541
0.042513
-0.022878
-0.008309
0.018605
-0.029872
0.014488
-0.016397
0.021223
0.028850
0.002326
-0.008715
-0.014904
-0.009610
-0.003079
0.015906
0.017259
0.029028
0.001503
0.044024
0.008427
0.003557
0.010310
-0.010836
-0.018307
-0.040721
-0.001432
0.019208
-0.038898
0.032762
-0.024452
-0.036634
0.015546
0.050884
0.015857
-0.020209
0.045555
0.008880
-0.018636
0.031813
0.029069
0.063285
0.022852
-0.016835
-0.004978
0.012572
-0.004146
0.052153
-0.010453
0.013126
-0.014351
-0.001289
0.008066
-0.003651
0.000528
-0.025308
0.011545
-0.000689
-0.014737
0.014211
0.032498
-0.001568
-0.003630
0.001655
0.010024
0.020791
0.042635
0.021525
0.016760
0.058239
0.015046
0.019899
-0.009282
-0.009522
0.006251
0.019241
0.029877
0.005108
-0.004969
0.020201
-0.007770
0.009494
-0.015097
-0.002351
0.002584
-0.000911
0.007901
-0.022920
0.006440
0.011324
0.030415
0.004893
0.013644
0.001791
0.028096
-0.004391
0.006046
-0.013619
0.046260
-0.025858
0.002043
0.015164
-0.001677
-0.004966
-0.018896
0.016647
0.036065
0.001950
-0.006405
0.012377
-0.003165
0.027804
0.024773
-0.013965
0.018335
-0.000512
0.022281
0.005569
-0.012572
0.007520
0.009743
0.026498
-0.031456
0.001893
0.030968
-0.010230
0.018960
0.038201
0.028089
0.029477
0.013504
0.001861
0.010834
0.002225
0.006880
-0.004096
-0.035201
-0.007276
0.014966
-0.021222
0.016697
0.028776
0.010224
-0.012655
0.010874
0.009338
-0.010624
0.037794
0.014414
0.008785
-0.023662
-0.037480
0.010020
-0.038161
-0.017703
0.007073
0.004311
0.039334
0.006825
0.007328
0.026412
0.003685
0.020114
0.014039
0.005007
0.037888
-0.008513
0.010470
0.025323
-0.033023
-0.002198
0.000778
0.005890
0.015858
0.027667
0.032729
-0.030165
-0.041717
0.011239
0.046734
0.001261
0.022038
-0.001375
-0.008126
0.002316
-0.001859
-0.017096
0.003285
0.009581
0.010692
0.017851
0.007828
-0.001108
0.019080
-0.013357
0.018605
-0.002468
0.009351
0.009640
0.015872
-0.011511
0.008636
-0.000292
0.015975
0.017335
0.017224
0.041754
0.006946
0.003787
-0.003702
0.000414
0.002102
0.005446
0.042421
0.016810
0.014005
-0.000210
-0.019454
0.041680
0.001207
-0.006855
0.017091
-0.009080
-0.042272
0.033535
0.025628
0.020227
0.000108
-0.008169
0.021709
0.022465
0.041277
0.026716
-0.043199
0.010385
0.000627
-0.015688
-0.014871
-0.049046
0.033672
0.014685
-0.010730
-0.034602
0.025044
0.022187
0.024451
0.021362
0.015428
0.038195
0.010896
-0.027930
-0.004095
-0.023012
-0.009517
-0.015126
-0.000208
-0.008278
0.011186
0.001770
-0.013119
0.022671
0.021878
0.030776
0.028697
0.020865
0.030035
-0.015588
0.030493
0.015000
0.003016
-0.042579
-0.010678
0.018990
-0.001847
0.019768
0.011356
0.000872
0.012916
0.004063
0.008328
0.000554
0.028264
-0.013270
-0.032013
-0.022392
0.016687
0.021098
0.009396
0.045543
0.035360
0.000251
0.009768
-0.007092
-0.002443
-0.008725
-0.009933
-0.011062
-0.003352
0.032841
0.003299
0.018142
-0.003614
0.021228
0.029362
0.005346
0.021476
0.040407
0.018269
0.001371
-0.038006
-0.001078
-0.012393
-0.009971
-0.033862
-0.006933
0.017653
0.019361
0.029832
-0.035618
0.051471
0.031356
0.035917
0.011860
-0.014552
0.028088
0.019144
0.041698
0.017513
0.016840
0.020511
-0.003353
0.039852
-0.023914
0.014849
0.027169
0.001944
0.016432
-0.016706
0.024962
0.015079
-0.001602
0.043665
0.008143
-0.017651
-0.008172
0.006707
-0.005397
-0.045290
0.047154
-0.010571
-0.002331
-0.001170
0.029766
0.035192
0.014562
-0.023306
0.011585
0.017736
0.011329
0.035504
-0.005797
-0.003370
-0.019868
-0.001886
-0.019646
-0.016844
0.021010
0.063598
0.026198
0.027273
-0.020319
0.020191
0.036591
-0.014857
0.039095
0.031452
0.018814
0.017320
-0.022299
0.039921
0.012709
0.010188
0.034398
0.018065
0.038544
0.016739
0.053967
0.030224
0.016372
0.019584
0.025211
0.065675
0.039964
0.003140
0.005469
-0.000626
-0.006717
0.025073
0.022077
-0.001774
-0.041340
-0.000836
0.012058
-0.004897
-0.029979
0.010920
0.018219
0.031721
-0.017615
0.003141
0.007884
0.033828
-0.016000
0.006712
0.007750
0.027896
-0.002700
-0.014437
0.045433
0.028203
0.021678
-0.020609
-0.008911
0.035626
-0.021547
0.015303
-0.016015
0.010701
0.010851
0.027893
0.032311
0.012784
0.013939
0.021869
0.015525
0.013523
-0.024095
0.002772
-0.012418
0.021882
-0.001860
0.014833
0.059469
0.056638
-0.017394
0.037806
-0.006065
0.010294
-0.013276
0.022828
-0.020714
0.027922
0.022389
-0.049469
-0.022004
0.012108
-0.037823
-0.006911
0.009202
0.063970
0.003910
0.030886
-0.013271
0.000020
-0.016725
0.009931
0.042205
0.010391
-0.002489
-0.001533
-0.020751
0.001809
-0.023843
0.035265
0.007954
0.013226
-0.012749
0.059060
-0.000099
-0.001824
-0.003045
0.001971
0.003942
-0.005147
0.028094
0.000843
0.004237
0.035468
0.032702
0.065611
0.026720
0.003573
-0.007769
0.005915
0.037295
-0.022599
0.021633
0.025234
-0.002672
0.019582
-0.006501
0.053687
-0.011540
-0.005254
-0.018697
0.005242
0.025597
0.023900
0.010759
0.020951
-0.004027
0.037601
-0.012250
0.015118
-0.018990
-0.010209
0.030773
0.009570
0.032669
-0.000325
0.036205
0.011577
-0.002996
-0.003883
0.023428
0.011005
-0.006609
0.003521
0.028014
-0.020573
-0.018718
-0.011589
0.015962
-0.002654
-0.005574
0.001450
-0.020298
0.004706
-0.001190
-0.024250
0.007337
-0.009079
0.007243
0.034537
-0.025075
0.004712
-0.019207
0.002090
0.012781
-0.031928
0.047287
-0.018231
-0.007344
-0.027081
-0.011911
0.004458
0.032752
-0.033161
0.014712
0.019218
-0.021920
0.032666
-0.011722
0.007175
0.033864
-0.003821
0.029679
0.007574
0.016408
0.030051
0.006623
0.040117
-0.005998
0.000816
-0.008757
0.006084
0.015163
-0.033344
0.021019
-0.003805
-0.014030
-0.014020
0.029001
0.016061
0.061537
-0.015531
0.038085
-0.012615
-0.002489
-0.013624
0.027224
0.016098
0.023290
-0.004876
0.024184
0.010558
-0.043916
0.010649
0.002649
-0.004801
-0.012833
0.008681
0.030268
0.014019
-0.028797
-0.007974
0.041542
-0.009063
0.008027
0.019186
0.018267
0.000961
-0.034323
-0.011105
-0.002027
0.002921
-0.003387
-0.012164
0.009033
0.041850
0.036206
0.018927
0.019880
0.005310
0.010886
-0.003893
-0.000209
0.031798
-0.052444
0.042417
0.000424
-0.006398
-0.028822
0.024214
0.003959
0.001297
0.012129
0.022253
0.008311
0.004051
0.011890
-0.005178
0.026796
0.025023
0.014766
-0.024331
0.007044
-0.042483
0.039241
0.015497
0.016499
-0.015296
-0.009765
0.012254
-0.005798
0.033521
0.016838
-0.028128
0.022690
-0.014346
-0.001851
0.009647
-0.002560
-0.008783
0.031487
0.024101
0.045777
-0.004994
0.034932
0.014384
0.005119
-0.021325
-0.008673
0.017524
-0.005240
0.020015
-0.037308
0.000968
0.023472
0.032434
0.032562
-0.009552
-0.027161
0.009761
0.054762
0.001974
-0.023063
0.013772
0.022405
0.027611
-0.001395
0.028849
0.043050
0.032338
-0.007811
0.019786
-0.039258
0.030237
0.004159
0.028007
0.004259
0.000621
0.024958
0.003975
0.019446
0.017234
-0.003995
0.009215
0.026353
-0.002425
0.006916
0.013314
-0.008256
-0.014980
-0.016174
-0.008899
0.030948
0.024066
-0.027338
0.009309
0.003153
0.029887
0.028908
-0.037352
0.025037
-0.000237
0.019659
0.015801
0.012247
-0.013924
0.004208
0.013642
-0.005767
0.003644
0.019119
-0.002157
-0.005680
-0.001958
0.005967
-0.028946
0.048774
0.002204
0.039263
0.018460
0.026103
-0.020591
-0.045166
0.045170
0.027557
0.018252
-0.020350
0.006148
-0.000146
-0.004843
0.007779
-0.027712
-0.007746
0.021840
0.008504
-0.009169
-0.003622
0.012796
0.024703
0.054978
-0.003430
-0.003808
-0.029209
-0.055366
0.006571
-0.001636
0.004389
0.005133
0.022345
-0.013552
-0.028427
0.026913
0.012574
-0.000634
-0.021990
-0.029774
0.000264
0.017073
0.009536
-0.016783
0.034794
0.013363
0.009065
0.002664
0.001443
-0.000590
0.005503
-0.026198
0.025864
0.030191
0.032708
-0.041342
-0.018914
-0.001841
0.000241
0.018223
0.005841
0.003712
0.046510
0.003779
-0.019257
0.024060
-0.007690
-0.003022
0.015869
0.009734
0.001823
-0.014012
0.000730
0.034443
0.001285
0.009765
0.022869
0.030389
-0.013575
-0.003783
0.026822
0.035467
0.008700
0.006509
0.018010
0.013588
0.024485
-0.040026
-0.000239
0.015545
-0.008842
0.002595
0.003786
-0.023549
-0.001417
0.002588
-0.032812
-0.006285
0.042565
-0.007135
0.016526
0.033526
-0.006370
-0.005064
-0.037303
-0.018682
0.012486
0.045725
0.008030
-0.042096
0.009219
0.004544
-0.013194
0.005673
0.005149
0.002682
-0.005056
0.026400
0.023651
-0.000399
-0.033776
0.004019
-0.008172
0.032577
-0.017279
-0.007641
0.009590
-0.043914
0.013201
0.022732
0.007338
0.014281
0.028325
-0.016811
-0.003363
-0.019222
0.067827
0.049427
-0.025520
-0.009053
0.008681
0.002107
-0.032751
0.003042
-0.031395
-0.008535
0.042806
-0.005871
0.021658
0.017396
0.001995
0.036722
0.027016
0.036761
0.005212
0.003401
-0.000250
0.013697
-0.028735
0.023750
0.014126
-0.022252
0.001879
-0.025582
0.039502
0.001289
0.030495
0.001811
0.013067
-0.027252
-0.024620
0.008028
0.015277
-0.002081
-0.007258
-0.026095
-0.003696
0.015518
-0.017639
-0.013520
-0.001702
0.007020
-0.004874
0.004341
0.003615
0.009013
0.036789
-0.004308
-0.013055
0.008030
0.002417
0.020005
0.040093
0.024278
0.016550
0.017065
0.004306
0.016870
0.028244
0.020334
0.039369
0.066740
0.013828
0.017066
0.030229
0.011621
-0.024876
0.033064
0.012306
0.024687
0.027750
0.001555
0.021341
0.022825
-0.004481
-0.006626
0.015446
-0.014727
0.017831
0.017400
0.009197
0.018163
-0.018273
0.000543
0.016092
0.033064
0.002930
0.004648
-0.018938
0.011725
0.007176
0.024505
0.053804
0.004576
-0.010991
0.018525
0.007644
0.002612
0.028211
-0.009271
-0.023864
0.021228
0.010457
0.037325
0.048637
-0.002018
0.011900
-0.040531
-0.019786
0.018787
-0.010890
-0.004483
0.002113
0.024819
0.003309
0.017270
0.059604
0.015796
-0.028121
0.045651
0.018407
0.016852
-0.004211
-0.007984
-0.027844
0.003084
0.009165
-0.007831
-0.028282
-0.013641
0.006415
-0.021386
0.025650
-0.011709
0.032568
0.050074
-0.020110
0.006302
-0.018288
-0.002314
0.030308
-0.009466
0.019264
0.034928
-0.022696
-0.037155
0.011110
0.040762
-0.037846
0.011802
0.026534
0.023311
-0.018579
0.011139
0.048529
0.007450
0.039572
-0.003195
-0.018631
0.050908
0.026963
-0.005198
0.014450
-0.002729
0.029164
-0.017374
0.040616
0.011250
0.003178
0.001919
0.014784
-0.005734
-0.007023
-0.008980
0.024468
0.056054
0.010824
0.008406
0.010335
0.005275
-0.018776
0.005361
0.003689
0.028887
-0.002723
0.028555
0.021550
-0.013669
-0.034916
0.048177
0.014581
0.006032
-0.003521
-0.004981
0.051567
0.002669
0.014321
-0.027786
-0.000162
0.032134
0.020616
0.007044
-0.019089
0.020076
0.018345
0.005098
0.027711
-0.009109
0.021490
0.011934
0.007498
0.003493
0.018529
-0.008016
-0.003811
0.044170
-0.036200
-0.012373
-0.008135
-0.037379
0.000106
0.008275
-0.010163
0.018450
0.012026
-0.014073
-0.001307
-0.002266
-0.011217
0.022641
0.027233
0.012471
0.015811
0.008102
0.070965
0.038317
-0.001931
0.008381
0.018319
-0.019379
0.019294
0.020678
0.016842
0.035551
-0.034192
0.049415
0.002646
-0.012420
0.024236
-0.009112
-0.005585
0.024153
0.016902
0.051615
-0.029007
0.022777
0.014733
0.032382
0.040374
-0.006608
0.011983
0.035401
0.006956
0.032634
0.008604
-0.016923
0.015423
-0.004294
0.006736
0.007561
0.017346
0.001690
0.031552
0.016898
0.009136
0.037770
0.008570
0.017885
0.042419
0.017507
0.017613
0.047334
-0.009928
0.010951
-0.007022
-0.027125
0.037926
-0.020554
-0.011735
-0.001493
-0.005142
0.004065
0.006436
-0.008287
-0.004088
-0.040013
0.022569
0.014636
0.021983
-0.001563
-0.004997
0.003316
0.045829
-0.005088
0.021058
0.010102
-0.001980
0.050160
0.008602
0.003550
0.001338
0.027625
0.055869
0.028920
0.025115
0.012994
0.056467
-0.006185
0.043060
0.031273
0.009902
0.016573
-0.013095
-0.000948
0.019043
0.008855
-0.023044
0.024658
-0.009724
-0.028416
-0.035388
-0.005959
0.017327
0.019141
-0.023632
0.030962
0.046905
0.043867
0.040604
-0.017529
0.006520
-0.020903
-0.046202
-0.010686
0.020264
0.031520
0.040503
0.014056
-0.007026
0.025159
-0.015754
-0.020021
-0.019894
0.013515
0.034537
0.031201
-0.001526
0.030365
-0.007695
0.019572
0.015762
0.021471
0.011877
0.020243
-0.018661
0.024258
-0.002804
-0.039862
0.056664
-0.039804
0.027879
-0.005640
-0.052989
-0.001229
0.054996
0.024164
-0.016968
0.018121
0.029141
0.077825
0.017060
0.018487
-0.029392
0.015877
0.014490
0.031634
0.044449
0.038783
0.021637
0.007597
-0.000397
-0.040030
-0.004311
-0.015896
-0.020976
0.050533
-0.000409
0.061985
0.005085
0.025131
-0.022005
0.013083
0.014164
-0.027141
-0.030643
-0.003661
-0.018793
0.051377
0.024461
0.031769
0.014028
0.029175
0.038189
0.014863
0.036608
-0.013081
0.020286
-0.025473
0.030124
-0.002511
0.013701
-0.010186
0.024414
0.005940
0.010049
-0.010987
0.006220
-0.024944
0.011473
-0.004775
0.001831
0.029871
-0.013874
0.018878
0.026669
0.008473
-0.004141
0.045679
0.008911
0.010205
0.043150
0.030222
0.021701
0.022132
-0.026088
0.008561
0.009251
-0.002094
0.002427
0.017033
-0.004454
-0.010040
-0.013207
-0.043744
0.003953
0.046268
0.015960
-0.019786
0.003303
0.023527
0.017364
0.025477
-0.001305
-0.007277
0.015513
0.005238
0.001052
0.004329
0.022170
-0.003128
0.007329
0.014393
-0.001669
0.012510
-0.004272
0.005651
0.041515
0.049592
0.019640
0.023711
0.019117
0.057065
-0.003646
0.026079
0.029443
0.002598
-0.005847
-0.013875
0.012193
0.000149
-0.007663
-0.015037
0.036124
0.002474
-0.021753
-0.028568
0.009530
-0.032468
-0.008367
-0.005017
-0.038672
0.034399
0.008970
-0.018676
-0.017920
-0.015008
-0.016638
0.029043
0.036726
-0.021983
0.024321
0.018064
0.038316
0.018729
-0.000747
0.006111
-0.016498
0.022061
-0.003310
-0.000424
0.030047
0.044273
0.020123
-0.029650
-0.015470
0.043698
0.000747
0.017039
0.022662
0.035190
-0.006619
0.009829
0.010094
0.016898
0.024113
0.012089
0.021064
0.002715
-0.042387
0.002819
0.004164
0.076762
-0.005452
-0.022598
-0.033349
-0.030271
-0.011304
0.018265
0.021118
-0.006098
0.021256
0.027497
0.013929
0.012977
-0.028432
0.050400
0.044607
0.018710
0.005336
-0.024941
0.030429
-0.039808
0.024464
-0.030861
0.002075
-0.017724
0.021053
0.029153
0.006044
0.019725
-0.053811
0.056007
0.015721
-0.011509
0.008970
0.015161
-0.004170
0.011052
0.012754
0.040449
0.005159
-0.003034
-0.034456
-0.016559
0.005371
-0.010627
0.001578
0.016791
0.017055
0.018989
-0.023158
0.032299
0.023008
0.015232
0.047033
0.024503
0.011814
-0.023830
-0.003735
0.024796
-0.012715
0.006445
-0.040397
-0.002121
-0.006738
0.027531
-0.018605
0.015520
-0.030706
0.025709
-0.015095
0.040522
0.023488
-0.021121
-0.003068
-0.012781
-0.000887
0.033217
0.000919
0.004109
-0.031393
0.004143
-0.058052
-0.004779
0.030702
0.010466
0.009736
0.026928
0.000159
0.005949
0.007888
-0.026763
0.014909
0.052850
0.036694
0.002405
0.026034
0.029524
0.002208
0.007783
-0.029542
-0.004032
0.030842
-0.004415
-0.002570
-0.053697
0.030377
-0.015453
0.008057
0.000564
-0.020492
-0.026855
-0.003829
0.008840
-0.001780
0.015315
0.028574
0.017588
0.060006
0.043570
0.008167
0.013967
-0.002604
-0.000891
0.018955
0.028041
0.025926
-0.005608
-0.021977
-0.023685
-0.027418
0.020980
-0.020206
-0.022852
0.008886
0.010810
0.008083
0.006844
0.019000
0.042355
0.015115
0.031525
-0.003320
0.018112
-0.019966
0.003605
0.015412
-0.007374
-0.022458
0.014984
0.015039
-0.023114
0.008250
-0.018771
0.015254
-0.009103
0.039611
0.005945
-0.015211
-0.001417
0.044012
0.010559
0.005220
0.000230
-0.003025
0.041904
0.025019
0.009863
0.044287
0.021421
-0.003297
-0.005720
0.001091
0.018037
0.026805
0.003752
0.031618
-0.004186
0.020396
0.008200
0.006834
-0.015872
-0.033879
0.053888
-0.016623
0.009436
0.007340
0.022516
0.025594
-0.016044
-0.011639
0.008101
-0.022137
0.018648
0.055676
0.034420
0.037952
-0.012350
0.018950
-0.005017
-0.007519
0.038562
-0.002769
-0.012474
-0.013488
0.023173
-0.007717
0.014740
0.047258
0.004624
0.006013
0.019360
0.037799
-0.012676
-0.028620
0.009422
0.002646
-0.001684
0.004282
-0.001024
0.013502
0.021327
0.034940
0.038840
0.010268
-0.001028
-0.000273
0.012761
-0.018344
-0.017202
-0.009306
-0.021781
0.006476
0.007609
0.006268
0.001301
0.033521
-0.000888
-0.016433
-0.017296
0.064812
0.039541
0.001303
-0.003945
0.030450
0.063174
0.023139
0.005796
-0.015474
-0.016505
-0.008188
-0.003801
-0.014789
0.002553
-0.011281
0.015790
0.013285
0.010585
0.009789
-0.001481
0.002139
0.011035
-0.011725
0.018048
0.051206
-0.015960
0.009893
0.024238
0.031142
0.022930
-0.031755
-0.022991
0.022867
-0.013868
-0.054443
-0.003159
0.044145
-0.015889
-0.011341
0.022728
0.040971
0.028336
0.015053
-0.006018
0.048072
-0.004311
0.019350
0.028540
-0.001054
0.018167
0.052431
-0.007369
0.018370
-0.046199
-0.013723
-0.011078
0.015076
0.034203
0.018932
-0.020528
-0.020777
0.018296
0.025065
-0.005876
-0.001596
0.004295
0.034827
0.010085
-0.004346
0.002705
-0.002506
0.003026
-0.013495
-0.008325
0.002311
-0.024623
-0.013883
0.021057
0.033831
0.000651
-0.004161
0.017906
0.006613
0.038576
0.009660
-0.022138
0.005580
0.045558
0.024080
0.052595
0.017998
-0.019962
0.010992
0.012992
-0.018685
0.038092
-0.017848
0.026128
0.003265
0.041475
-0.008372
0.011132
0.023669
0.040947
-0.019746
-0.010768
0.010686
0.016531
0.025831
-0.007618
-0.000099
-0.067079
0.029065
0.015785
-0.037388
0.020071
0.000432
0.019658
0.015115
-0.005772
0.005824
0.021232
-0.009774
-0.010296
0.010231
0.015066
0.016259
0.033392
0.006251
0.028164
-0.004720
0.017477
0.004889
0.001493
-0.000195
-0.013389
0.026509
0.028948
-0.040414
0.010297
-0.007492
-0.005655
-0.016664
0.015719
-0.023726
0.001255
0.011932
0.015924
-0.005584
0.019824
0.024657
0.016064
0.017086
-0.009763
-0.006996
-0.006308
0.017677
-0.011232
0.033181
0.002196
-0.014083
0.028383
-0.036250
0.014606
0.035441
-0.034759
0.006257
0.001793
0.015360
0.020566
0.000212
-0.051130
0.051107
-0.024066
-0.015833
-0.017997
-0.015963
0.030739
-0.018223
-0.000466
0.036210
-0.019824
0.029720
0.027885
0.015366
0.016566
0.012664
0.034732
-0.007473
0.029978
0.011321
0.021085
0.026834
0.024802
0.036375
0.000117
-0.020082
0.004508
0.016275
0.040124
0.039574
-0.005400
0.050411
0.017379
-0.006893
0.046941
0.021434
-0.009255
-0.000145
0.017081
0.023215
-0.005554
-0.043919
0.022607
0.009327
0.025334
0.007582
0.027920
0.002887
0.046896
0.009363
0.018511
0.007598
0.047349
-0.004139
0.036020
0.026225
0.010237
-0.015156
-0.000511
-0.009051
0.010795
0.006781
0.015021
0.004268
0.020597
0.001112
-0.012023
-0.026038
0.025739
0.045070
0.040782
0.003261
0.005501
0.000003
-0.014420
0.014015
0.012474
-0.008938
0.009396
0.032497
0.003620
0.009246
-0.000932
-0.016506
-0.025364
-0.012366
0.011401
0.012543
-0.004359
0.021450
0.015898
0.001277
0.011246
0.010683
-0.010699
0.030010
0.051053
0.002510
0.006456
-0.030386
0.042119
-0.009099
0.006255
0.002097
0.020617
-0.045546
0.006230
-0.019476
-0.012594
0.039934
0.062095
0.022663
-0.006029
-0.012800
-0.001947
-0.010608
0.003367
0.042410
0.030929
0.031059
-0.035920
0.027639
0.011213
-0.015603
-0.029704
0.017248
-0.018857
-0.026945
0.008189
-0.015485
0.004049
0.021263
-0.000192
-0.024361
-0.010177
-0.006413
0.013493
0.001158
0.007402
0.016511
-0.020527
0.012045
0.023787
0.022809
-0.004100
0.042940
0.007047
-0.025579
0.049492
0.000589
0.022947
0.018072
-0.004289
0.011239
0.012258
0.015252
-0.000358
-0.050856
0.014142
0.023065
-0.018805
-0.035556
0.007541
0.012149
0.012975
0.012288
-0.013863
-0.011985
-0.001964
0.030644
0.000915
0.029549
0.012584
-0.005324
-0.002212
0.003518
-0.024948
0.013820
0.017885
0.023585
0.003406
0.034838
-0.026373
-0.001140
0.001547
-0.019472
0.018232
-0.017605
-0.001444
-0.008954
0.049196
-0.000025
0.015191
0.008716
0.001740
-0.031400
-0.007856
-0.002708
-0.065893
-0.000349
0.030032
0.022780
0.033789
-0.015807
0.031180
-0.010474
0.020658
-0.001736
0.013112
0.020464
-0.001323
-0.007477
-0.021435
-0.003136
0.006884
-0.031108
0.004688
0.000661
0.020558
0.002101
0.026977
-0.021491
-0.007312
0.018112
-0.017411
0.050435
0.003132
0.038873
-0.041773
0.007601
0.024474
-0.014163
0.037312
0.043586
0.042854
0.015664
0.005054
0.038694
0.011874
0.005032
0.005664
0.007599
0.015799
0.026572
-0.022344
0.020185
-0.000830
-0.006903
-0.006569
-0.000217
0.016419
0.016615
0.012394
0.017112
-0.027393
0.011035
0.021680
-0.053604
-0.011851
0.024710
-0.005621
-0.002242
0.009275
-0.038876
-0.006959
-0.009261
0.011578
-0.023656
0.003767
-0.018140
0.030371
0.021542
-0.028233
0.024031
0.001017
-0.025594
0.016549
0.017874
0.014246
0.064693
0.005486
-0.033166
-0.005021
0.032950
0.016406
0.008726
0.006541
0.028399
0.000031
0.029384
-0.009151
0.002902
0.025587
-0.012448
0.001767
0.001808
-0.014723
-0.002433
0.003800
0.009763
-0.008255
0.003502
-0.010271
0.017853
-0.004598
0.039012
0.038202
0.014864
-0.008374
-0.000233
0.017278
0.000294
-0.021248
0.020088
-0.032629
0.011186
0.012410
0.030925
0.016798
0.059259
-0.009085
0.002787
0.004102
-0.014247
0.003135
-0.070823
0.000314
0.027080
-0.001536
0.028056
0.033657
0.023094
0.033969
0.013905
0.003701
0.009753
0.028038
0.004407
0.002267
-0.023394
-0.000697
0.041081
0.019192
-0.012799
0.001075
0.017590
0.002905
-0.014214
0.005963
-0.035875
0.026949
0.046803
-0.027792
-0.005349
-0.013413
0.003415
-0.002256
-0.035386
0.000125
0.015644
-0.039079
0.019927
0.024360
-0.004756
0.025014
0.024572
-0.001771
0.000002
0.010754
0.041323
0.008015
0.021146
-0.017819
-0.040361
0.013128
0.020672
0.007111
0.005198
-0.027188
-0.007035
0.007151
-0.031256
-0.019197
0.019777
0.018489
0.005316
0.008888
0.033029
-0.042631
-0.007120
0.028467
-0.003835
0.026382
0.038775
0.023881
-0.006124
-0.010369
0.006767
-0.024664
0.025118
-0.001332
0.016061
0.020493
0.012286
-0.007584
0.023809
0.009144
-0.015247
-0.037240
-0.000783
0.037054
0.001934
0.013944
0.011649
0.008525
-0.023842
0.022359
-0.002159
-0.023480
0.045672
-0.003655
0.011579
0.012348
0.010122
-0.001243
0.011871
0.020788
-0.009758
-0.015128
0.019118
0.048472
0.002914
-0.039207
-0.003060
0.014288
-0.009301
0.012642
0.002731
0.005525
0.026750
0.033516
0.017056
0.013925
-0.006295
0.013227
-0.029639
0.031866
0.019695
0.043477
0.021002
-0.019983
-0.010129
-0.010770
-0.013837
0.023962
0.047648
0.006583
0.022849
0.018619
0.054842
-0.024715
0.036441
0.016609
0.015712
0.005235
0.019321
-0.036845
-0.002501
0.029071
-0.023698
0.046741
-0.007427
-0.041204
0.036810
-0.019198
0.012012
0.000654
0.012519
0.020055
0.022447
0.006979
-0.001457
0.001306
0.059705
0.026747
0.031662
0.010841
-0.021915
-0.001434
0.008696
0.012450
0.009259
-0.002452
0.017788
0.012886
-0.002404
0.013784
0.031460
-0.009118
0.031496
0.030801
0.034490
-0.037980
0.008421
0.019223
-0.013447
0.030483
-0.028314
0.014209
0.046288
0.005868
-0.006449
0.015070
-0.012925
0.012953
-0.043125
0.013014
0.011648
0.068896
-0.031660
0.000978
-0.011596
0.015978
0.005462
0.052764
-0.009815
-0.033253
0.002740
-0.003159
-0.008187
0.014803
-0.009573
0.000337
0.005895
-0.011258
0.019045
-0.001766
-0.019007
0.025488
-0.002505
-0.002013
-0.008458
0.027466
0.012537
-0.014606
0.021809
0.001024
0.035171
0.026193
0.037029
-0.045425
-0.004510
-0.025024
0.041500
0.035077
0.025009
-0.002856
-0.001706
0.006160
0.029297
0.001042
0.062086
-0.014426
-0.002452
-0.014287
-0.009148
0.008192
0.044805
0.005411
0.019803
0.035218
0.002218
0.001354
-0.020423
0.026331
-0.026872
-0.006758
0.011700
-0.007009
-0.054383
-0.014752
0.007058
0.015771
0.032751
-0.008884
0.023702
0.008546
0.009122
0.009756
0.027596
-0.046237
-0.000596
0.011498
0.004950
0.043883
0.031746
-0.016148
-0.023690
-0.033714
0.044473
0.003015
0.010600
-0.007216
0.082201
0.021289
-0.029783
0.008559
-0.032839
0.008085
0.019065
0.054618
0.019183
-0.034761
0.029059
0.004937
0.055849
0.014863
0.010697
-0.000236
0.017137
-0.012965
0.031802
0.019865
0.004339
0.014258
-0.008795
0.022597
-0.014693
0.013970
0.016373
0.006522
0.021089
0.025563
0.011782
0.008963
-0.003369
0.002804
0.035973
-0.005645
0.010592
-0.002787
0.007840
0.033640
0.024919
-0.016433
0.015010
0.003004
0.052819
0.021122
-0.018296
-0.009861
0.003349
-0.017056
0.043556
0.011650
-0.006267
0.011712
-0.042041
0.048803
0.022419
-0.032878
-0.005976
0.013986
-0.003075
-0.023893
0.026330
0.033288
0.005381
0.021491
0.016775
0.018012
0.016402
0.026352
0.008260
0.048674
0.052086
0.011481
-0.004727
-0.020371
0.012615
0.006034
0.003966
-0.010413
0.005559
0.030223
0.048766
0.027192
0.034231
0.036449
0.006905
0.008530
0.066849
0.007809
-0.020164
-0.019880
0.010605
0.008968
-0.005514
0.003782
0.026410
0.020479
0.002832
0.039453
-0.029019
-0.016420
0.013131
-0.008120
-0.026829
-0.020925
0.020800
0.027886
0.029745
0.046626
-0.022350
0.001378
-0.007705
0.049368
0.009371
0.005665
0.001790
0.024121
0.034444
-0.016153
0.027980
-0.000035
0.002802
-0.016325
-0.009242
0.030513
0.020476
0.021475
0.022563
-0.015509
0.005628
0.058465
-0.017032
-0.015860
-0.006001
-0.002663
0.067374
-0.012777
0.018107
0.003094
-0.012357
0.007343
-0.014402
0.003601
0.001480
0.001318
-0.022690
0.030234
-0.002495
0.015211
0.028645
-0.003126
0.010928
-0.009491
-0.011748
0.068727
0.016098
-0.011574
0.000619
-0.018168
0.006389
0.028594
0.015654
0.003647
0.011482
0.029674
-0.002489
-0.000900
-0.041340
-0.007785
0.023104
0.003075
-0.012626
-0.019438
0.001661
-0.012457
0.000255
0.006290
0.016240
-0.002725
0.036161
0.025065
0.016194
0.012951
0.015947
-0.029753
0.056934
-0.003999
0.001135
0.046469
0.015109
0.018619
-0.002403
0.005662
0.001725
-0.000130
-0.013298
-0.006144
-0.002360
-0.003990
-0.002133
0.037307
0.014866
0.028359
-0.002156
0.005338
0.006693
0.005034
0.015372
0.022999
0.007897
-0.009970
-0.018683
0.011447
0.039206
0.027695
-0.020010
-0.014429
0.018081
-0.008871
0.029103
0.009274
-0.018155
-0.019697
-0.008140
-0.001020
0.035713
0.000423
0.038909
-0.025760
0.062769
0.016228
0.030886
-0.028101
0.022324
-0.022404
0.001452
0.036834
0.014708
0.002908
0.039469
0.035106
0.035675
-0.024699
0.000692
-0.004946
-0.026922
-0.003688
0.018610
-0.021366
0.011526
0.034324
0.026258
0.021686
0.017292
0.016259
-0.010170
-0.011890
-0.003100
-0.001599
-0.038652
-0.013661
0.007141
0.017593
-0.001160
-0.001094
0.020448
-0.042968
-0.014540
0.043739
-0.010425
0.006378
-0.044857
0.003346
-0.001801
-0.022476
0.004689
0.030258
0.033208
0.012250
-0.013141
-0.003607
0.028404
0.002164
0.003213
-0.035040
0.054408
0.043879
0.013599
0.033062
-0.006656
0.004260
0.008026
0.009924
0.015903
-0.018416
0.005942
0.029621
-0.025665
0.010012
0.010729
-0.027583
-0.005067
-0.023531
-0.031529
-0.029719
-0.009767
-0.004614
-0.031756
0.018544
-0.006862
-0.008600
-0.015873
0.019732
-0.007436
0.025112
-0.005428
-0.013096
-0.025079
-0.014056
0.019024
0.023250
0.010966
0.036385
-0.009815
-0.022415
-0.003051
0.035300
-0.020645
0.016267
0.003835
-0.006143
-0.029478
-0.021401
-0.004755
0.056800
0.045976
0.012796
0.055298
-0.036445
0.020146
0.011771
0.001495
0.025130
0.012067
-0.016293
-0.040627
0.027009
0.011751
-0.020899
0.002139
0.001110
0.000953
0.021123
0.005360
-0.042545
-0.003147
-0.015190
0.039633
0.020291
-0.027614
0.013793
0.015277
-0.003082
0.021861
0.012096
-0.015652
-0.015446
-0.037170
-0.019078
-0.035890
0.006048
0.002144
-0.013600
0.005379
0.013993
0.025083
-0.028224
-0.015025
0.012892
0.068633
-0.001727
-0.001732
-0.008693
0.004496
-0.024680
0.008457
0.023313
-0.007487
-0.005100
0.015303
0.044896
0.032683
-0.004093
-0.002943
0.029221
-0.000903
-0.016799
-0.026978
0.001009
-0.001686
0.030641
0.019220
-0.016475
0.008036
0.003291
0.019647
-0.046154
0.003546
0.028885
-0.044942
-0.000945
-0.017516
0.067116
0.046661
-0.037808
0.023399
0.041940
0.031990
-0.008133
0.041453
-0.001202
-0.043356
0.008278
0.032427
0.011844
0.001770
-0.016465
0.005776
-0.034336
-0.007422
-0.002689
0.025500
0.000727
0.015572
0.036256
0.001847
0.003392
-0.003638
-0.011067
-0.000123
0.013406
0.019444
0.011746
0.018986
0.009201
0.002528
-0.000024
0.045586
0.032487
-0.004932
-0.015384
-0.027448
0.015143
-0.008531
-0.002040
0.038885
-0.012628
0.026700
0.018730
0.025105
-0.002718
0.016234
0.016264
0.000587
-0.004307
-0.002853
0.016766
0.017336
0.048441
0.032354
0.038112
0.044256
0.016377
-0.000526
-0.010507
0.000782
-0.024705
0.004234
-0.025015
-0.005519
0.049385
0.034086
0.019198
0.034573
-0.018469
0.003073
-0.019123
-0.027943
-0.030221
0.017543
0.046626
-0.000573
0.072101
-0.000670
-0.001300
0.013104
-0.002005
-0.000993
0.010613
-0.016980
0.016096
0.026778
0.021434
-0.001883
0.015706
-0.044517
0.022747
0.010102
0.049923
-0.023310
0.059330
-0.022811
-0.035493
-0.015239
0.001844
0.024182
0.042479
0.020948
0.021283
0.009595
0.012524
0.017623
0.026749
0.012439
-0.010274
0.040290
0.017869
0.009920
0.020709
0.026603
0.006598
-0.000895
0.031096
0.016022
-0.000838
0.035570
0.032057
0.017847
0.014467
0.014887
0.019310
-0.023389
0.037943
0.014417
0.002305
0.025564
0.004209
-0.026197
0.005755
0.002772
-0.003462
0.010485
0.032465
0.001864
0.038490
0.025059
-0.025774
-0.005282
0.013970
0.031563
-0.017669
0.011327
-0.022312
0.006408
-0.021425
0.002927
0.028984
0.007460
0.026215
0.026971
-0.001841
0.020118
0.071424
-0.015647
0.027802
-0.007409
0.026920
0.000302
0.035700
0.019823
-0.007049
-0.014585
0.029496
-0.000658
0.015632
-0.022827
-0.021290
-0.002965
0.021496
0.035606
0.010841
-0.011801
0.026709
-0.044448
-0.007824
-0.019057
0.018375
-0.001509
0.020635
0.038283
0.031693
0.016526
-0.000529
-0.004678
0.007784
-0.024780
0.016251
-0.018249
0.027222
-0.007290
0.002695
-0.003846
-0.009119
0.035264
0.046597
-0.017422
0.026112
0.045507
0.002212
-0.020504
-0.040806
0.004202
-0.008314
0.024416
0.044724
0.005797
0.017782
-0.027014
-0.027311
0.043911
0.042751
0.016916
0.041603
0.047885
0.016416
0.027615
0.010438
-0.028945
0.029666
0.014148
0.000704
0.031653
0.028235
0.030559
0.026563
-0.002855
0.002087
-0.005361
0.007199
0.011035
0.008554
-0.002400
-0.000799
0.037803
-0.005694
0.025944
-0.012719
-0.004562
0.015762
0.001369
-0.012813
0.059463
-0.014945
-0.004617
0.043833
0.010351
-0.019098
0.003608
0.003674
0.002707
0.006329
-0.016794
0.018341
0.015777
-0.034154
-0.006163
-0.007213
0.042110
-0.028353
-0.042790
-0.004446
-0.010661
-0.021264
-0.012792
-0.006162
-0.034460
0.004267
-0.013688
-0.000582
0.006528
-0.004238
-0.023129
0.040799
-0.008867
0.002460
0.006799
-0.019853
-0.032696
0.022864
0.024459
0.003526
-0.006288
0.032060
0.026986
-0.000422
-0.001618
0.027195
0.016704
-0.027448
0.028259
-0.011520
0.004996
0.038376
0.049117
-0.013035
0.052121
0.034464
-0.004866
-0.002930
0.006167
0.035646
0.009950
-0.015921
0.057956
0.047399
0.022833
0.033525
0.048760
0.032513
0.026326
-0.023458
-0.002746
-0.008716
0.006691
0.011919
-0.018918
0.014154
0.004506
0.027296
-0.031202
0.050961
0.009135
0.030400
-0.000903
-0.007585
-0.014631
0.004902
0.066311
0.046709
0.022588
-0.014525
0.012788
0.000978
0.000184
0.030238
0.046278
0.006269
-0.003372
-0.009600
0.016293
-0.011290
-0.031183
0.014695
0.003380
-0.021926
0.011652
0.012242
0.001221
-0.029965
0.004704
-0.014514
0.011965
0.001096
0.028121
-0.023482
-0.004111
-0.045330
0.001924
-0.002083
-0.001609
-0.018731
0.008811
0.015720
0.039310
-0.010484
0.010266
0.018775
0.003553
-0.022750
0.032539
0.022570
0.003976
-0.027546
0.011812
0.029787
0.002613
0.019498
0.014921
0.015025
0.027257
-0.001745
-0.019678
0.014958
-0.023243
-0.005581
-0.000261
0.041572
0.002918
-0.000586
-0.003090
0.011779
0.014584
0.005908
0.023215
0.012427
-0.027349
0.012807
-0.036648
0.023954
0.023479
0.009710
-0.047540
0.013752
0.012831
0.042389
0.035100
-0.025106
0.033404
-0.003416
-0.021807
0.042766
-0.013996
0.025434
-0.015177
-0.009787
0.000241
-0.001597
-0.024812
0.018499
0.009528
